digraph Tree {
node [shape=box, style="filled, rounded", color="black", fontname=helvetica] ;
edge [fontname=helvetica] ;
0 [label="follower_num <= 18.0\nentropy = 0.98\nsamples = 209\nvalue = [193, 137]", fillcolor="#f7dac6"] ;
1 [label="age <= 803.5\nentropy = 0.81\nsamples = 157\nvalue = [178, 59]", fillcolor="#eeab7b"] ;
0 -> 1 [labeldistance=2.5, labelangle=45, headlabel="True"] ;
2 [label="entropy = 0.0\nsamples = 119\nvalue = [178, 0]", fillcolor="#e58139"] ;
1 -> 2 ;
3 [label="entropy = 0.0\nsamples = 38\nvalue = [0, 59]", fillcolor="#399de5"] ;
1 -> 3 ;
4 [label="pr_num <= 193.0\nentropy = 0.64\nsamples = 52\nvalue = [15, 78]", fillcolor="#5fb0ea"] ;
0 -> 4 [labeldistance=2.5, labelangle=-45, headlabel="False"] ;
5 [label="age <= 780.5\nentropy = 0.57\nsamples = 51\nvalue = [12, 78]", fillcolor="#57ace9"] ;
4 -> 5 ;
6 [label="pr_num <= 23.0\nentropy = 0.59\nsamples = 9\nvalue = [12, 2]", fillcolor="#e9965a"] ;
5 -> 6 ;
7 [label="entropy = 0.0\nsamples = 7\nvalue = [11, 0]", fillcolor="#e58139"] ;
6 -> 7 ;
8 [label="commit_num <= 49.5\nentropy = 0.92\nsamples = 2\nvalue = [1, 2]", fillcolor="#9ccef2"] ;
6 -> 8 ;
9 [label="entropy = 0.0\nsamples = 1\nvalue = [0, 2]", fillcolor="#399de5"] ;
8 -> 9 ;
10 [label="entropy = 0.0\nsamples = 1\nvalue = [1, 0]", fillcolor="#e58139"] ;
8 -> 10 ;
11 [label="entropy = 0.0\nsamples = 42\nvalue = [0, 76]", fillcolor="#399de5"] ;
5 -> 11 ;
12 [label="entropy = 0.0\nsamples = 1\nvalue = [3, 0]", fillcolor="#e58139"] ;
4 -> 12 ;
}