digraph Tree {
node [shape=box, style="filled, rounded", color="black", fontname=helvetica] ;
edge [fontname=helvetica] ;
0 [label="issue_events <= 2.08\nentropy = 0.64\nsamples = 39\nvalue = [51, 10]", fillcolor="#ea9a60"] ;
1 [label="entropy = 0.0\nsamples = 6\nvalue = [0, 10]", fillcolor="#399de5"] ;
0 -> 1 [labeldistance=2.5, labelangle=45, headlabel="True"] ;
2 [label="entropy = 0.0\nsamples = 33\nvalue = [51, 0]", fillcolor="#e58139"] ;
0 -> 2 [labeldistance=2.5, labelangle=-45, headlabel="False"] ;
}