digraph Tree {
node [shape=box, style="filled, rounded", color="black", fontname=helvetica] ;
edge [fontname=helvetica] ;
0 [label="issue_comment_num <= 2.9\nentropy = 2.16\nsamples = 330\nvalue = [46, 121, 61, 27, 75]", fillcolor="#e7fadb"] ;
1 [label="follower_num <= 1.79\nentropy = 1.19\nsamples = 179\nvalue = [1, 112, 58, 0, 8]", fillcolor="#c4f3a7"] ;
0 -> 1 [labeldistance=2.5, labelangle=45, headlabel="True"] ;
2 [label="repo_num <= 3.08\nentropy = 0.58\nsamples = 119\nvalue = [0, 106, 10, 0, 3]", fillcolor="#8be851"] ;
1 -> 2 ;
3 [label="entropy = 0.08\nsamples = 94\nvalue = [0, 93, 0, 0, 1]", fillcolor="#7ce53b"] ;
2 -> 3 ;
4 [label="entropy = 1.31\nsamples = 25\nvalue = [0, 13, 10, 0, 2]", fillcolor="#e5fad7"] ;
2 -> 4 ;
5 [label="repo_num <= 2.7\nentropy = 0.99\nsamples = 60\nvalue = [1, 6, 48, 0, 5]", fillcolor="#65ebd2"] ;
1 -> 5 ;
6 [label="entropy = 1.37\nsamples = 10\nvalue = [0, 6, 2, 0, 2]", fillcolor="#bdf29c"] ;
5 -> 6 ;
7 [label="entropy = 0.47\nsamples = 50\nvalue = [1, 0, 46, 0, 3]", fillcolor="#4ae7ca"] ;
5 -> 7 ;
8 [label="pr_comment_num <= 2.9\nentropy = 1.84\nsamples = 151\nvalue = [45, 9, 3, 27, 67]", fillcolor="#fad6f2"] ;
0 -> 8 [labeldistance=2.5, labelangle=-45, headlabel="False"] ;
9 [label="issue_number <= 2.7\nentropy = 1.28\nsamples = 96\nvalue = [17, 9, 3, 0, 67]", fillcolor="#ef82d7"] ;
8 -> 9 ;
10 [label="entropy = 0.9\nsamples = 58\nvalue = [0, 9, 3, 0, 46]", fillcolor="#eb69cf"] ;
9 -> 10 ;
11 [label="entropy = 0.99\nsamples = 38\nvalue = [17, 0, 0, 0, 21]", fillcolor="#fad9f3"] ;
9 -> 11 ;
12 [label="pr_num <= 5.19\nentropy = 1.0\nsamples = 55\nvalue = [28, 0, 0, 27, 0]", fillcolor="#fefaf8"] ;
8 -> 12 ;
13 [label="entropy = 0.67\nsamples = 34\nvalue = [28, 0, 0, 6, 0]", fillcolor="#eb9c63"] ;
12 -> 13 ;
14 [label="entropy = 0.0\nsamples = 21\nvalue = [0, 0, 0, 21, 0]", fillcolor="#3c39e5"] ;
12 -> 14 ;
}