digraph Tree {
node [shape=box, style="filled, rounded", color="black", fontname=helvetica] ;
edge [fontname=helvetica] ;
0 [label="issue_events <= 2.91\nentropy = 0.8\nsamples = 39\nvalue = [6, 4, 51]", fillcolor="#985dea"] ;
1 [label="issues <= 0.85\nentropy = 0.97\nsamples = 8\nvalue = [6, 4, 0]", fillcolor="#f6d5bd"] ;
0 -> 1 [labeldistance=2.5, labelangle=45, headlabel="True"] ;
2 [label="entropy = 0.0\nsamples = 5\nvalue = [6, 0, 0]", fillcolor="#e58139"] ;
1 -> 2 ;
3 [label="entropy = 0.0\nsamples = 3\nvalue = [0, 4, 0]", fillcolor="#39e581"] ;
1 -> 3 ;
4 [label="entropy = 0.0\nsamples = 31\nvalue = [0, 0, 51]", fillcolor="#8139e5"] ;
0 -> 4 [labeldistance=2.5, labelangle=-45, headlabel="False"] ;
}