digraph Tree {
node [shape=box, style="filled, rounded", color="black", fontname=helvetica] ;
edge [fontname=helvetica] ;
0 [label="pr_num <= 0.5\nentropy = 1.85\nsamples = 199\nvalue = [33, 137, 71, 89]", fillcolor="#dafad8"] ;
1 [label="follower_num <= 1.79\nentropy = 1.2\nsamples = 124\nvalue = [0, 131, 56, 15]", fillcolor="#a0f299"] ;
0 -> 1 [labeldistance=2.5, labelangle=45, headlabel="True"] ;
2 [label="issue_number <= 2.7\nentropy = 0.51\nsamples = 82\nvalue = [0, 124, 11, 2]", fillcolor="#5ae84d"] ;
1 -> 2 ;
3 [label="repo_num <= 3.86\nentropy = 0.42\nsamples = 80\nvalue = [0, 124, 9, 1]", fillcolor="#56e749"] ;
2 -> 3 ;
4 [label="entropy = 0.0\nsamples = 71\nvalue = [0, 120, 0, 0]", fillcolor="#47e539"] ;
3 -> 4 ;
5 [label="age <= 1.99\nentropy = 1.2\nsamples = 9\nvalue = [0, 4, 9, 1]", fillcolor="#9ccef2"] ;
3 -> 5 ;
6 [label="entropy = 0.99\nsamples = 5\nvalue = [0, 4, 3, 0]", fillcolor="#d1f8ce"] ;
5 -> 6 ;
7 [label="entropy = 0.59\nsamples = 4\nvalue = [0, 0, 6, 1]", fillcolor="#5aade9"] ;
5 -> 7 ;
8 [label="entropy = 0.92\nsamples = 2\nvalue = [0, 0, 2, 1]", fillcolor="#9ccef2"] ;
2 -> 8 ;
9 [label="issue_number <= 1.79\nentropy = 1.18\nsamples = 42\nvalue = [0, 7, 45, 13]", fillcolor="#85c3ef"] ;
1 -> 9 ;
10 [label="repo_num <= 2.7\nentropy = 0.8\nsamples = 34\nvalue = [0, 7, 43, 2]", fillcolor="#61b1ea"] ;
9 -> 10 ;
11 [label="age <= 1.9\nentropy = 1.16\nsamples = 8\nvalue = [0, 7, 2, 1]", fillcolor="#8cef83"] ;
10 -> 11 ;
12 [label="entropy = 0.54\nsamples = 6\nvalue = [0, 7, 0, 1]", fillcolor="#61e955"] ;
11 -> 12 ;
13 [label="entropy = 0.0\nsamples = 2\nvalue = [0, 0, 2, 0]", fillcolor="#399de5"] ;
11 -> 13 ;
14 [label="pr_comment_num <= 1.95\nentropy = 0.16\nsamples = 26\nvalue = [0, 0, 41, 1]", fillcolor="#3e9fe6"] ;
10 -> 14 ;
15 [label="entropy = 0.0\nsamples = 24\nvalue = [0, 0, 38, 0]", fillcolor="#399de5"] ;
14 -> 15 ;
16 [label="entropy = 0.81\nsamples = 2\nvalue = [0, 0, 3, 1]", fillcolor="#7bbeee"] ;
14 -> 16 ;
17 [label="issue_event_num <= 3.85\nentropy = 0.62\nsamples = 8\nvalue = [0, 0, 2, 11]", fillcolor="#de5dea"] ;
9 -> 17 ;
18 [label="entropy = 0.0\nsamples = 2\nvalue = [0, 0, 2, 0]", fillcolor="#399de5"] ;
17 -> 18 ;
19 [label="entropy = 0.0\nsamples = 6\nvalue = [0, 0, 0, 11]", fillcolor="#d739e5"] ;
17 -> 19 ;
20 [label="issue_event_num <= 5.93\nentropy = 1.53\nsamples = 75\nvalue = [33, 6, 15, 74]", fillcolor="#eeaaf4"] ;
0 -> 20 [labeldistance=2.5, labelangle=-45, headlabel="False"] ;
21 [label="commit_num <= 3.25\nentropy = 1.07\nsamples = 52\nvalue = [1, 6, 15, 68]", fillcolor="#e373ed"] ;
20 -> 21 ;
22 [label="issue_number <= 2.16\nentropy = 1.33\nsamples = 30\nvalue = [0, 6, 15, 30]", fillcolor="#eeacf4"] ;
21 -> 22 ;
23 [label="issue_comment_num <= 1.79\nentropy = 1.57\nsamples = 11\nvalue = [0, 6, 7, 5]", fillcolor="#eef7fd"] ;
22 -> 23 ;
24 [label="entropy = 0.81\nsamples = 4\nvalue = [0, 6, 2, 0]", fillcolor="#84ee7b"] ;
23 -> 24 ;
25 [label="entropy = 1.0\nsamples = 7\nvalue = [0, 0, 5, 5]", fillcolor="#ffffff"] ;
23 -> 25 ;
26 [label="issue_number <= 2.99\nentropy = 0.8\nsamples = 19\nvalue = [0, 0, 8, 25]", fillcolor="#e478ed"] ;
22 -> 26 ;
27 [label="entropy = 0.92\nsamples = 14\nvalue = [0, 0, 8, 16]", fillcolor="#eb9cf2"] ;
26 -> 27 ;
28 [label="entropy = 0.0\nsamples = 5\nvalue = [0, 0, 0, 9]", fillcolor="#d739e5"] ;
26 -> 28 ;
29 [label="issue_number <= 4.7\nentropy = 0.17\nsamples = 22\nvalue = [1, 0, 0, 38]", fillcolor="#d83ee6"] ;
21 -> 29 ;
30 [label="entropy = 0.0\nsamples = 20\nvalue = [0, 0, 0, 37]", fillcolor="#d739e5"] ;
29 -> 30 ;
31 [label="entropy = 1.0\nsamples = 2\nvalue = [1, 0, 0, 1]", fillcolor="#ffffff"] ;
29 -> 31 ;
32 [label="commit_num <= 4.97\nentropy = 0.63\nsamples = 23\nvalue = [32, 0, 0, 6]", fillcolor="#ea995e"] ;
20 -> 32 ;
33 [label="pr_num <= 3.89\nentropy = 0.81\nsamples = 4\nvalue = [2, 0, 0, 6]", fillcolor="#e47bee"] ;
32 -> 33 ;
34 [label="entropy = 0.0\nsamples = 2\nvalue = [0, 0, 0, 5]", fillcolor="#d739e5"] ;
33 -> 34 ;
35 [label="entropy = 0.92\nsamples = 2\nvalue = [2, 0, 0, 1]", fillcolor="#f2c09c"] ;
33 -> 35 ;
36 [label="entropy = 0.0\nsamples = 19\nvalue = [30, 0, 0, 0]", fillcolor="#e58139"] ;
32 -> 36 ;
}